// let predictSentence = "Ale 8 One Soda, 12 Ounce (12 Cans)";
let btn = document.getElementById('productRBtn');
btn.addEventListener('click', function(){ 

// Create a Neural Network
var net = new brain.NeuralNetwork({
          hiddenLayers: [30, 30],
          activation: 'sigmoid'
});
console.log(net);
var getMax = 359;
function normalize(sentence,getMax){
  
  var rv = [];
  for(var i=0;i<Math.min(sentence.length,getMax);i++){
    var code = sentence.charCodeAt(i);
    rv.push(code/1000);
  }
  for(var i=Math.min(sentence.length,getMax);i<getMax;i++){
    rv.push(0);
  }
  return rv;
}

var jsonModel = {
    "type": "NeuralNetwork",
    "sizes": [
        359,
        30,
        30,
        6
    ],
    "layers": [
        {
            "weights": [],
            "biases": []
        },
        {
            "weights": [
                [
                    6.828658580780029,
                    -4.6479034423828125,
                    -15.94924259185791,
                    -12.001068115234375,
                    2.657655715942383,
                    10.748714447021484,
                    -9.323275566101074,
                    3.4396228790283203,
                    -3.7105982303619385,
                    4.7982096672058105,
                    -10.161517143249512,
                    2.3394808769226074,
                    -3.1891729831695557,
                    -1.2762547731399536,
                    0.24511796236038208,
                    3.5256452560424805,
                    -4.302960395812988,
                    -3.416599750518799,
                    3.3406097888946533,
                    5.5983991622924805,
                    3.2002577781677246,
                    1.9876964092254639,
                    -8.20263385772705,
                    -3.011190891265869,
                    -5.363943099975586,
                    1.3750070333480835,
                    2.746187686920166,
                    -3.3972694873809814,
                    3.576719045639038,
                    -13.023801803588867,
                    3.810297966003418,
                    0.305639386177063,
                    -3.131934881210327,
                    -1.4145820140838623,
                    7.1930832862854,
                    -11.227834701538086,
                    8.52334213256836,
                    -8.489165306091309,
                    6.476024150848389,
                    7.89796257019043,
                    -0.629600465297699,
                    2.726067543029785,
                    6.368158340454102,
                    -5.313986301422119,
                    18.074708938598633,
                    -1.2162320613861084,
                    15.713933944702148,
                    9.524161338806152,
                    13.86733627319336,
                    14.580050468444824,
                    7.0629401206970215,
                    21.187416076660156,
                    20.899900436401367,
                    22.447200775146484,
                    8.684954643249512,
                    6.4661946296691895,
                    5.066390514373779,
                    16.824527740478516,
                    1.560623049736023,
                    4.894318103790283,
                    -1.1066641807556152,
                    -13.34875774383545,
                    -2.5082340240478516,
                    -9.8082914352417,
                    8.535074234008789,
                    -3.79468035697937,
                    -1.1629087924957275,
                    -17.375761032104492,
                    -8.28748607635498,
                    -10.118558883666992,
                    -7.589437961578369,
                    -4.272754192352295,
                    -2.00779390335083,
                    2.7964437007904053,
                    0.8123530745506287,
                    4.49135160446167,
                    -11.273966789245605,
                    1.9155396223068237,
                    0.5622115135192871,
                    -2.6107544898986816,
                    -3.6975820064544678,
                    5.9181599617004395,
                    0.11265856772661209,
                    -1.8264213800430298,
                    -3.366255044937134,
                    -7.49267578125,
                    -4.107227802276611,
                    -4.654690742492676,
                    -2.002516984939575,
                    -4.184021472930908,
                    3.101895332336426,
                    3.116410970687866,
                    3.119832992553711,
                    -5.953709602355957,
                    0.29346856474876404,
                    4.490338325500488,
                    10.985462188720703,
                    8.931023597717285,
                    -0.5060287117958069,
                    -2.328160524368286,
                    -2.6309781074523926,
                    5.799623489379883,
                    3.0516388416290283,
                    -2.0659472942352295,
                    -1.1978042125701904,
                    -0.8412274122238159,
                    1.0431015491485596,
                    0.4609450101852417,
                    1.0439051389694214,
                    -1.6906054019927979,
                    -1.8386969566345215,
                    3.9571449756622314,
                    5.04757833480835,
                    0.3514133095741272,
                    0.5077879428863525,
                    -1.1149486303329468,
                    -0.06526567786931992,
                    -3.4614975452423096,
                    -3.662371873855591,
                    -6.043704509735107,
                    -3.163036584854126,
                    -0.14369486272335052,
                    -0.6375606656074524,
                    -2.937804937362671,
                    -2.4340600967407227,
                    -2.854426860809326,
                    -0.42620933055877686,
                    -2.7952041625976562,
                    1.4832683801651,
                    -0.8575845956802368,
                    -1.7788779735565186,
                    2.2323081493377686,
                    1.4104342460632324,
                    -3.081739902496338,
                    -0.20385541021823883,
                    1.3750295639038086,
                    2.448415517807007,
                    -0.55631023645401,
                    -2.321681499481201,
                    2.561002016067505,
                    1.2376155853271484,
                    0.6557342410087585,
                    -0.6681020855903625,
                    -2.0017478466033936,
                    -1.6495747566223145,
                    0.6965019702911377,
                    2.860179901123047,
                    0.39732247591018677,
                    2.366501569747925,
                    0.8928641080856323,
                    0.7289855480194092,
                    1.1014039516448975,
                    3.8336126804351807,
                    2.5707201957702637,
                    2.544955015182495,
                    1.0191248655319214,
                    1.2903531789779663,
                    0.23323699831962585,
                    -1.0526375770568848,
                    -0.1347063183784485,
                    0.6368958353996277,
                    -0.3050724267959595,
                    -0.5032994747161865,
                    -0.30205944180488586,
                    -0.7411659359931946,
                    -2.940598964691162,
                    -0.24459108710289001,
                    -0.719970703125,
                    0.0035318387672305107,
                    0.17912210524082184,
                    1.0515915155410767,
                    -0.8164618015289307,
                    -1.2734369039535522,
                    0.48752695322036743,
                    0.455111026763916,
                    -0.29499006271362305,
                    1.2224571704864502,
                    0.09440464526414871,
                    -0.7213895916938782,
                    -0.33807700872421265,
                    0.3117055892944336,
                    0.7141916751861572,
                    0.2566682994365692,
                    -0.9769415259361267,
                    -1.4388102293014526,
                    0.1137264296412468,
                    0.3727424740791321,
                    -0.34155207872390747,
                    -1.116560459136963,
                    0.2421378195285797,
                    0.5126400589942932,
                    0.489996075630188,
                    0.4355025291442871,
                    0.4310741722583771,
                    -0.38016054034233093,
                    -1.2718253135681152,
                    -1.3977164030075073,
                    -1.0574764013290405,
                    -0.8155742287635803,
                    -1.1661303043365479,
                    0.7394008636474609,
                    -0.3358047604560852,
                    0.7604880332946777,
                    0.09876666963100433,
                    0.8227257132530212,
                    -0.1089908629655838,
                    0.7252635955810547,
                    0.5181556344032288,
                    -0.1726038157939911,
                    0.2085455358028412,
                    0.5951793789863586,
                    0.5546686053276062,
                    0.9052911996841431,
                    0.5089985728263855,
                    0.9573137164115906,
                    0.8063076138496399,
                    0.6154031753540039,
                    1.1196808815002441,
                    1.1167752742767334,
                    1.072270154953003,
                    1.317277193069458,
                    1.029523253440857,
                    1.1071631908416748,
                    0.5546885132789612,
                    1.1114678382873535,
                    0.5057187080383301,
                    0.6140332818031311,
                    0.9621895551681519,
                    0.5165606141090393,
                    0.5442321300506592,
                    1.364761233329773,
                    0.527763307094574,
                    0.8815379738807678,
                    0.43013855814933777,
                    0.7253034114837646,
                    0.4701143801212311,
                    1.1389555931091309,
                    0.5108667612075806,
                    0.8506168723106384,
                    0.7282074093818665,
                    0.6757834553718567,
                    0.7159714698791504,
                    0.5185533761978149,
                    -0.22118119895458221,
                    0.011692412197589874,
                    0.12485325336456299,
                    0.040824346244335175,
                    0.389016717672348,
                    0.1943073272705078,
                    0.484337717294693,
                    0.4461638629436493,
                    -0.08318370580673218,
                    0.3777077794075012,
                    0.5092710852622986,
                    0.23503360152244568,
                    0.09586331248283386,
                    0.31415611505508423,
                    0.6055788993835449,
                    0.33599913120269775,
                    0.045901186764240265,
                    0.5232461094856262,
                    0.45224595069885254,
                    0.45417892932891846,
                    0.5983573198318481,
                    0.025247355923056602,
                    0.4350149631500244,
                    0.6484193205833435,
                    0.5557948350906372,
                    0.6568466424942017,
                    0.4778846502304077,
                    0.4268503785133362,
                    0.47677502036094666,
                    -0.10851986706256866,
                    0.2710270583629608,
                    0.21536102890968323,
                    -0.07610736042261124,
                    -0.09947854280471802,
                    -0.019075114279985428,
                    -0.0821734219789505,
                    0.19694332778453827,
                    -0.08079173415899277,
                    0.07228687405586243,
                    0.13031181693077087,
                    0.1115378811955452,
                    0.027029499411582947,
                    0.184911847114563,
                    0.17005112767219543,
                    0.20282208919525146,
                    0.13580012321472168,
                    -0.09455004334449768,
                    -0.048400264233350754,
                    -0.08668160438537598,
                    0.052503056824207306,
                    -0.0007239314145408571,
                    0.11791779845952988,
                    0.108159139752388,
                    0.014357359148561954,
                    -0.03616436570882797,
                    0.11924140155315399,
                    -0.13707508146762848,
                    -0.12349669635295868,
                    0.04994839057326317,
                    0.1461634337902069,
                    -0.019186217337846756,
                    -0.006070409901440144,
                    -0.17033323645591736,
                    -0.18589873611927032,
                    0.14718899130821228,
                    -0.05773010849952698,
                    -0.043546635657548904,
                    -0.041499506682157516,
                    -0.17497782409191132,
                    -0.14555203914642334,
                    0.14539426565170288,
                    -0.2184704691171646,
                    -0.2467527985572815,
                    0.014251906424760818,
                    -0.0497436486184597,
                    0.03569352254271507,
                    0.17490190267562866,
                    -0.002280937973409891,
                    -0.0894763320684433,
                    0.07434000074863434,
                    -0.04293398559093475,
                    0.03938588500022888,
                    -0.05462015047669411,
                    0.1475781947374344,
                    0.1179179847240448,
                    -0.08719798922538757,
                    -0.038934048265218735,
                    0.05999281629920006,
                    -0.14583398401737213,
                    0.12117305397987366,
                    -0.25139111280441284,
                    0.03845103830099106,
                    -0.07677941024303436,
                    0.06009160727262497,
                    0.08986372500658035,
                    -0.19363336265087128,
                    0.08154353499412537,
                    -0.052186280488967896,
                    0.10696044564247131,
                    0.14412719011306763,
                    0.13497306406497955,
                    -0.19544872641563416,
                    -0.14487765729427338,
                    0.1415756493806839,
                    -0.04757769778370857,
                    0.078128881752491,
                    -0.11948652565479279,
                    -0.2262144386768341,
                    0.023116612806916237,
                    -0.10219685733318329,
                    0.11931375414133072,
                    0.12709090113639832,
                    0.12455880641937256,
                    -0.24728094041347504,
                    -0.1928325593471527,
                    -0.0637606754899025
                ],
                [
                    -1.8877592086791992,
                    2.2965917587280273,
                    6.946739196777344,
                    -6.1087846755981445,
                    -1.6637639999389648,
                    16.444454193115234,
                    -3.3112001419067383,
                    -1.0612447261810303,
                    1.2772655487060547,
                    0.8099779486656189,
                    -6.932764530181885,
                    -10.539527893066406,
                    -3.74729585647583,
                    -12.641727447509766,
                    9.362926483154297,
                    4.856410503387451,
                    5.530384063720703,
                    9.67487907409668,
                    -8.814857482910156,
                    3.622262716293335,
                    3.228471040725708,
                    10.15865421295166,
                    -0.35358506441116333,
                    1.800374150276184,
                    -1.1119977235794067,
                    8.82754898071289,
                    2.5632376670837402,
                    0.27903956174850464,
                    1.1432992219924927,
                    -7.460562705993652,
                    -5.216085433959961,
                    18.50929832458496,
                    -8.497213363647461,
                    -10.207579612731934,
                    -6.007667064666748,
                    -6.578330993652344,
                    -11.87673568725586,
                    -2.6077659130096436,
                    -7.558213710784912,
                    -4.080902576446533,
                    -8.669535636901855,
                    -13.345982551574707,
                    -5.9434943199157715,
                    -1.930248737335205,
                    -3.1223134994506836,
                    -3.582629442214966,
                    -4.173648357391357,
                    -2.243762731552124,
                    -3.8592610359191895,
                    0.6699575781822205,
                    0.30903226137161255,
                    -0.22723904252052307,
                    -4.137726783752441,
                    -5.137537002563477,
                    -2.8744139671325684,
                    -2.1547651290893555,
                    1.3752254247665405,
                    0.8109449148178101,
                    2.692291498184204,
                    -0.4135255217552185,
                    -0.5343563556671143,
                    0.3832249343395233,
                    -1.380379557609558,
                    1.1849547624588013,
                    -0.6203176379203796,
                    0.7522002458572388,
                    0.8933045268058777,
                    0.7230387926101685,
                    2.451082944869995,
                    0.3125561773777008,
                    -0.5018072128295898,
                    1.3213862180709839,
                    1.4626574516296387,
                    1.1439759731292725,
                    1.6136149168014526,
                    -1.6211713552474976,
                    2.037562131881714,
                    2.659421920776367,
                    0.9767981171607971,
                    1.6297378540039062,
                    2.5491960048675537,
                    0.42421916127204895,
                    2.029249668121338,
                    1.12142014503479,
                    1.005958914756775,
                    0.8203825950622559,
                    1.5877608060836792,
                    -0.4156133532524109,
                    -0.6957414150238037,
                    -0.5286638140678406,
                    -0.1772637516260147,
                    -0.40970858931541443,
                    0.8119882941246033,
                    -1.3997483253479004,
                    -1.8060716390609741,
                    -3.0038557052612305,
                    -0.7749072313308716,
                    -0.3393847346305847,
                    -0.6367724537849426,
                    -0.7325507402420044,
                    -0.1445685774087906,
                    -1.2552788257598877,
                    -0.4746755361557007,
                    -0.6180136799812317,
                    -1.712294101715088,
                    -1.473082184791565,
                    -0.8154627680778503,
                    0.22795435786247253,
                    -0.0657828226685524,
                    -0.16327564418315887,
                    -0.23264464735984802,
                    -0.27254706621170044,
                    -0.059564221650362015,
                    -0.4777411222457886,
                    -1.06959068775177,
                    -0.5042141675949097,
                    -0.42478570342063904,
                    0.12961436808109283,
                    0.533620297908783,
                    -0.07020378857851028,
                    -0.9290768504142761,
                    0.3202284872531891,
                    0.4515557289123535,
                    -0.4488457441329956,
                    -0.5970317125320435,
                    -0.13337180018424988,
                    -0.12955214083194733,
                    0.16570959985256195,
                    0.026902081444859505,
                    0.45030853152275085,
                    -0.5721327066421509,
                    -0.8672829866409302,
                    -1.3715609312057495,
                    -0.8376896381378174,
                    -0.701004147529602,
                    -0.5201912522315979,
                    -0.6179795265197754,
                    -0.4253360629081726,
                    -0.34383323788642883,
                    -0.4406769871711731,
                    -0.5450479388237,
                    -0.5713095664978027,
                    -0.6534019112586975,
                    -0.5898596048355103,
                    -0.5618939399719238,
                    -0.4520145058631897,
                    -0.008523605763912201,
                    0.042696110904216766,
                    -0.027491526678204536,
                    0.08414891362190247,
                    0.03375205025076866,
                    0.007362176664173603,
                    -0.47242653369903564,
                    0.22984470427036285,
                    -0.12896765768527985,
                    -0.020956633612513542,
                    0.06569591164588928,
                    -0.22860342264175415,
                    -0.2309580296278,
                    0.26084068417549133,
                    0.005119023844599724,
                    -0.14018727838993073,
                    -0.4307386875152588,
                    -0.28184494376182556,
                    -0.3174726963043213,
                    -0.3272785544395447,
                    -0.3303851783275604,
                    -0.3666771352291107,
                    -0.1378926932811737,
                    -0.07183177769184113,
                    -0.15383607149124146,
                    -0.2655693292617798,
                    -0.1724138855934143,
                    -0.1509060114622116,
                    -0.12840166687965393,
                    -0.3319205343723297,
                    0.031602825969457626,
                    -0.15674398839473724,
                    0.005833696573972702,
                    -0.13955560326576233,
                    -0.1206606775522232,
                    -0.04395804554224014,
                    -0.2847076654434204,
                    -0.06649387627840042,
                    0.1076253205537796,
                    0.15533852577209473,
                    0.19037969410419464,
                    0.00320557807572186,
                    -0.06914343684911728,
                    -0.119508758187294,
                    -0.041136737912893295,
                    -0.05683198943734169,
                    0.0018449794733896852,
                    0.09349662810564041,
                    0.0637752115726471,
                    0.009494252502918243,
                    -0.04584183916449547,
                    -0.05092531070113182,
                    -0.2891986072063446,
                    -0.272185742855072,
                    -0.04647820070385933,
                    -0.13170966506004333,
                    -0.31794342398643494,
                    -0.3352822959423065,
                    -0.07766915112733841,
                    -0.08164194226264954,
                    0.10645973682403564,
                    -0.205061674118042,
                    -0.07181885093450546,
                    0.022576255723834038,
                    0.12012840807437897,
                    0.05917312204837799,
                    -0.02033114805817604,
                    -0.09738042950630188,
                    0.18662114441394806,
                    -0.1647065132856369,
                    0.0308525413274765,
                    -0.15781117975711823,
                    0.15645290911197662,
                    -0.12185850739479065,
                    0.09618469327688217,
                    -0.10374028980731964,
                    -0.09574633836746216,
                    0.046854641288518906,
                    -0.0619419701397419,
                    0.11282972991466522,
                    -0.08841585367918015,
                    -0.08935797959566116,
                    -0.10438858717679977,
                    -0.01845489628612995,
                    0.06302694976329803,
                    0.05146689713001251,
                    0.01436786912381649,
                    -0.1861475110054016,
                    -0.15976203978061676,
                    -0.0040127551183104515,
                    0.017101744189858437,
                    -0.23137733340263367,
                    -0.021208615973591805,
                    0.08055310696363449,
                    -0.2588197588920593,
                    -0.16493460536003113,
                    -0.026598062366247177,
                    0.16849938035011292,
                    0.021673494949936867,
                    0.21385790407657623,
                    0.0335322767496109,
                    0.24315375089645386,
                    0.16015630960464478,
                    0.0645914152264595,
                    0.052622757852077484,
                    -0.08605313301086426,
                    0.24662812054157257,
                    0.11123190075159073,
                    0.10453376173973083,
                    0.05602607876062393,
                    -0.09904037415981293,
                    0.1710493117570877,
                    -0.15473049879074097,
                    0.17212800681591034,
                    -0.03485627472400665,
                    -0.0983457863330841,
                    -0.13440866768360138,
                    0.13419285416603088,
                    -0.1695496290922165,
                    0.055586978793144226,
                    0.06048654764890671,
                    0.16651760041713715,
                    -0.08660054206848145,
                    0.10262216627597809,
                    -0.07666361331939697,
                    -0.1592366248369217,
                    0.1170576959848404,
                    -0.06332976371049881,
                    0.16762620210647583,
                    0.14161360263824463,
                    -0.06972440332174301,
                    -0.050415027886629105,
                    -0.11466791480779648,
                    0.026951052248477936,
                    -0.023756012320518494,
                    0.1562269777059555,
                    -0.11244343966245651,
                    -0.10176561772823334,
                    0.09803687036037445,
                    -0.024089664220809937,
                    0.07878917455673218,
                    0.06534741073846817,
                    0.1426640748977661,
                    0.1929783672094345,
                    0.10897864401340485,
                    0.08631734549999237,
                    -0.08021858334541321,
                    -0.14572960138320923,
                    0.16284435987472534,
                    0.17285548150539398,
                    -0.08347299695014954,
                    -0.01867027021944523,
                    0.1313677579164505,
                    0.1940605789422989,
                    -0.018350034952163696,
                    0.17713457345962524,
                    -0.013040641322731972,
                    0.15810410678386688,
                    0.0003902518656104803,
                    -0.15034180879592896,
                    -0.11188167333602905,
                    -0.011415078304708004,
                    0.1513824760913849,
                    0.14302267134189606,
                    -0.10582463443279266,
                    0.042599234730005264,
                    -0.04557731747627258,
                    0.10644036531448364,
                    0.1743321567773819,
                    0.10508063435554504,
                    0.07125456631183624,
                    -0.14793910086154938,
                    -0.15461736917495728,
                    0.05546097829937935,
                    0.030425667762756348,
                    -0.1578914374113083,
                    0.011511390097439289,
                    -0.1677832007408142,
                    0.03328000754117966,
                    0.17325076460838318,
                    0.0659080445766449,
                    -0.12803268432617188,
                    0.176045224070549,
                    -0.029981890693306923,
                    -0.05043594539165497,
                    -0.14776739478111267,
                    0.12551255524158478,
                    -0.13496355712413788,
                    0.1663593053817749,
                    0.10790424793958664,
                    0.16028955578804016,
                    0.04844403639435768,
                    -0.004632722586393356,
                    -0.04669049382209778,
                    -0.12381228059530258,
                    -0.09261363744735718,
                    -0.14626087248325348,
                    -0.1827593445777893,
                    -0.1280803084373474,
                    0.1271202117204666,
                    -0.17241233587265015,
                    0.09323553740978241,
                    -0.1067066490650177,
                    -0.002859450876712799,
                    0.027242179960012436,
                    0.08039705455303192,
                    -0.06562142819166183,
                    -0.006797716487199068,
                    -0.15727674961090088,
                    0.08484590798616409,
                    0.16545605659484863,
                    0.1830911934375763,
                    0.01971791312098503
                ],
                [
                    -3.8750486373901367,
                    12.276361465454102,
                    16.30501365661621,
                    -4.944864749908447,
                    5.914928913116455,
                    6.637613296508789,
                    0.046401042491197586,
                    -0.20532667636871338,
                    -8.288518905639648,
                    -7.46925163269043,
                    -4.375537395477295,
                    6.416166305541992,
                    13.198661804199219,
                    -0.8836973905563354,
                    2.883765459060669,
                    9.268441200256348,
                    2.108969211578369,
                    10.951271057128906,
                    3.074188709259033,
                    2.404914379119873,
                    9.121594429016113,
                    1.8602830171585083,
                    -2.607673406600952,
                    -7.553178310394287,
                    1.7000941038131714,
                    13.809517860412598,
                    -4.395707607269287,
                    16.11651611328125,
                    4.189548492431641,
                    -8.707932472229004,
                    11.906795501708984,
                    4.872174263000488,
                    -1.376298427581787,
                    12.352094650268555,
                    3.814072847366333,
                    1.0135189294815063,
                    -0.9795621037483215,
                    10.93084716796875,
                    4.291549205780029,
                    -4.895134925842285,
                    2.0782744884490967,
                    -11.532776832580566,
                    -4.885574817657471,
                    6.5378241539001465,
                    -3.7505929470062256,
                    8.887602806091309,
                    8.435239791870117,
                    -5.704274654388428,
                    -4.562986373901367,
                    -3.7111597061157227,
                    7.1359477043151855,
                    5.004726409912109,
                    -9.313129425048828,
                    3.9078991413116455,
                    11.659887313842773,
                    -8.931456565856934,
                    -8.33951473236084,
                    0.20418840646743774,
                    -2.4546968936920166,
                    -9.597711563110352,
                    7.912509918212891,
                    -0.8462836742401123,
                    6.859058856964111,
                    -7.269448757171631,
                    -2.7125117778778076,
                    -7.531693458557129,
                    9.05177116394043,
                    7.0608415603637695,
                    -2.883523941040039,
                    0.7442571520805359,
                    3.0663368701934814,
                    9.267967224121094,
                    7.195569038391113,
                    3.268280506134033,
                    3.4621899127960205,
                    0.4825236201286316,
                    18.727153778076172,
                    -3.737353801727295,
                    -8.91952896118164,
                    -0.3918524980545044,
                    6.868309020996094,
                    5.433387279510498,
                    15.080096244812012,
                    8.179839134216309,
                    -0.7244499921798706,
                    -1.7593945264816284,
                    2.965956449508667,
                    7.5060014724731445,
                    13.32578182220459,
                    -0.5218902826309204,
                    -2.9448962211608887,
                    -2.890561103820801,
                    -13.6065034866333,
                    -6.436831474304199,
                    6.374443531036377,
                    -2.7385265827178955,
                    4.108829975128174,
                    3.3420982360839844,
                    9.770434379577637,
                    1.7100251913070679,
                    1.0783100128173828,
                    8.124547004699707,
                    2.1457855701446533,
                    -1.3249752521514893,
                    -5.86020040512085,
                    -10.995040893554688,
                    -3.2136013507843018,
                    7.0611982345581055,
                    0.6839191913604736,
                    0.8700509667396545,
                    -5.476596832275391,
                    -4.4825639724731445,
                    0.7450123429298401,
                    0.3311128318309784,
                    0.681698203086853,
                    -6.132686614990234,
                    7.771276950836182,
                    -1.0106635093688965,
                    9.482715606689453,
                    -3.5775959491729736,
                    -4.711374759674072,
                    -5.294057369232178,
                    7.801602840423584,
                    4.8131022453308105,
                    6.17681360244751,
                    3.0200488567352295,
                    -3.0977237224578857,
                    -0.17258721590042114,
                    -4.217390537261963,
                    1.3839627504348755,
                    -6.2794060707092285,
                    -1.560861349105835,
                    11.302216529846191,
                    1.1541836261749268,
                    -2.402026414871216,
                    0.2662135064601898,
                    0.7375425100326538,
                    -4.600658416748047,
                    -2.993175983428955,
                    8.963615417480469,
                    -1.401555061340332,
                    -1.1175566911697388,
                    4.703442096710205,
                    -0.6976058483123779,
                    -3.0134472846984863,
                    -1.987204909324646,
                    8.894058227539062,
                    4.7899956703186035,
                    9.08363151550293,
                    3.587928533554077,
                    1.5075840950012207,
                    0.824652910232544,
                    -4.408105850219727,
                    6.736510753631592,
                    0.39054277539253235,
                    4.2589802742004395,
                    -2.6000571250915527,
                    -8.260293006896973,
                    -3.9814071655273438,
                    7.739050388336182,
                    -2.711451768875122,
                    -1.2860981225967407,
                    -0.1261962354183197,
                    1.4060050249099731,
                    -4.204717636108398,
                    -9.929354667663574,
                    -0.0009563153143972158,
                    -0.8106827139854431,
                    3.121211051940918,
                    3.71647047996521,
                    1.4927717447280884,
                    -3.25850772857666,
                    -3.183952808380127,
                    -0.7207582592964172,
                    -7.735975742340088,
                    -6.612621307373047,
                    -2.3103864192962646,
                    0.8408880233764648,
                    -3.472334384918213,
                    -5.163961410522461,
                    -4.582345485687256,
                    -0.9951903820037842,
                    -6.168926239013672,
                    -3.4281489849090576,
                    5.973113536834717,
                    5.4247236251831055,
                    2.6670823097229004,
                    2.7846298217773438,
                    0.038236841559410095,
                    0.02018841728568077,
                    -4.224246025085449,
                    3.3596887588500977,
                    2.064955949783325,
                    2.043705463409424,
                    -1.3229576349258423,
                    -3.374511241912842,
                    1.514320969581604,
                    -2.501100778579712,
                    -0.6557270288467407,
                    3.352158784866333,
                    -5.909275054931641,
                    -3.6291215419769287,
                    2.534712553024292,
                    0.5060423016548157,
                    2.8026368618011475,
                    3.536872625350952,
                    -0.386173278093338,
                    -0.9726688861846924,
                    1.95710289478302,
                    2.14400053024292,
                    5.915851593017578,
                    2.8708910942077637,
                    0.42036810517311096,
                    4.044272422790527,
                    4.836163520812988,
                    3.691831111907959,
                    4.07307767868042,
                    2.5630886554718018,
                    2.288851499557495,
                    2.194035291671753,
                    1.4615193605422974,
                    1.554046392440796,
                    0.3839476406574249,
                    -4.259269714355469,
                    -1.8230081796646118,
                    -0.22031304240226746,
                    -0.9412782788276672,
                    -1.0798225402832031,
                    -0.42882463335990906,
                    -0.6802359819412231,
                    -0.7478328347206116,
                    -1.2070343494415283,
                    -0.15020117163658142,
                    -1.7317759990692139,
                    -3.2371718883514404,
                    -1.2812405824661255,
                    -1.9700205326080322,
                    -2.3824057579040527,
                    -2.20855450630188,
                    -0.8838675022125244,
                    -0.27558308839797974,
                    0.7782507538795471,
                    1.6627936363220215,
                    -1.3966093063354492,
                    -0.48219719529151917,
                    0.6820167899131775,
                    1.0995993614196777,
                    0.7485328912734985,
                    1.201314091682434,
                    1.531760334968567,
                    0.38823938369750977,
                    1.0840189456939697,
                    0.31582266092300415,
                    0.575695276260376,
                    0.4006868898868561,
                    0.6876182556152344,
                    0.5837689638137817,
                    0.9514572024345398,
                    -0.05898940563201904,
                    -0.05425408110022545,
                    0.5842903852462769,
                    1.4319632053375244,
                    0.803663432598114,
                    -0.29056882858276367,
                    -0.038333576172590256,
                    0.6031694412231445,
                    0.5890730023384094,
                    0.8365628719329834,
                    0.8372538089752197,
                    0.30459198355674744,
                    -0.07841967046260834,
                    0.8789464235305786,
                    1.023219108581543,
                    0.7953640818595886,
                    0.7006379961967468,
                    0.4205078184604645,
                    0.432552695274353,
                    0.7104968428611755,
                    0.6272246241569519,
                    0.14759117364883423,
                    -0.4853493571281433,
                    -0.2877894937992096,
                    1.133800983428955,
                    1.2062406539916992,
                    1.0688598155975342,
                    0.8175603747367859,
                    0.00843905285000801,
                    -0.560448944568634,
                    -0.2684941291809082,
                    -0.6832661032676697,
                    -1.0022096633911133,
                    -0.2810908555984497,
                    0.1521204560995102,
                    -0.03963620588183403,
                    -0.021988170221447945,
                    0.09293495863676071,
                    0.14109086990356445,
                    0.5260042548179626,
                    0.8187578916549683,
                    -0.18823620676994324,
                    0.09876387566328049,
                    0.5932788252830505,
                    0.45533397793769836,
                    0.36526384949684143,
                    0.2776258587837219,
                    -0.16733022034168243,
                    -0.44864439964294434,
                    -0.304214745759964,
                    -0.3281441330909729,
                    -0.021668653935194016,
                    -0.30424997210502625,
                    -0.4436887204647064,
                    -0.4777231514453888,
                    -0.07021432369947433,
                    0.0166490338742733,
                    -0.33946046233177185,
                    -0.5987282991409302,
                    -0.3079701364040375,
                    -0.1867089867591858,
                    -0.09939460456371307,
                    -0.22355373203754425,
                    -0.2615058124065399,
                    -0.600208044052124,
                    -0.4795893728733063,
                    -0.5931776762008667,
                    -0.515769362449646,
                    -0.2535877525806427,
                    -0.374916136264801,
                    -0.5370885133743286,
                    -0.6030119061470032,
                    -0.08686740696430206,
                    -0.19990211725234985,
                    -0.4703766107559204,
                    -0.37315821647644043,
                    -0.6480820178985596,
                    -0.25018930435180664,
                    -0.13135968148708344,
                    -0.4593263566493988,
                    -0.31533685326576233,
                    -0.4030189514160156,
                    -0.141031414270401,
                    0.006482755299657583,
                    -0.44378527998924255,
                    -0.5075613856315613,
                    -0.5890021920204163,
                    -0.6250935792922974,
                    -0.28966501355171204,
                    -0.24291978776454926,
                    -0.6093065738677979,
                    -0.45579513907432556,
                    -0.713165283203125,
                    -0.26780644059181213,
                    -0.5397298336029053,
                    -0.3353101909160614,
                    -0.464613139629364,
                    -0.5309407711029053,
                    -0.4898916184902191,
                    -0.47269511222839355,
                    -0.4837093651294708
                ],
                [
                    5.3466668128967285,
                    0.9989715814590454,
                    -6.149389743804932,
                    4.053555011749268,
                    -0.3070144057273865,
                    4.009397983551025,
                    12.523280143737793,
                    -6.416071891784668,
                    -7.180765151977539,
                    -1.0221253633499146,
                    -10.222702026367188,
                    -5.741642475128174,
                    3.3474576473236084,
                    -4.356858253479004,
                    -3.7871527671813965,
                    -0.8758944272994995,
                    -6.68886661529541,
                    -4.810922145843506,
                    -10.26009750366211,
                    -6.2082600593566895,
                    -6.377044677734375,
                    -1.3921500444412231,
                    6.292079448699951,
                    -8.273887634277344,
                    -1.1157704591751099,
                    3.3910105228424072,
                    14.713689804077148,
                    -12.532509803771973,
                    3.5137736797332764,
                    -2.197476863861084,
                    7.094140529632568,
                    7.696101188659668,
                    -6.359716892242432,
                    2.673031806945801,
                    13.429686546325684,
                    6.738073825836182,
                    -10.527589797973633,
                    4.085239410400391,
                    -2.630514621734619,
                    0.2879111170768738,
                    6.823812961578369,
                    -9.957048416137695,
                    -7.149767875671387,
                    -1.5952309370040894,
                    3.3943512439727783,
                    7.623558044433594,
                    1.089515209197998,
                    -4.458855152130127,
                    3.7899515628814697,
                    -3.296280860900879,
                    -9.441097259521484,
                    15.57502269744873,
                    4.0657548904418945,
                    -3.8342015743255615,
                    -6.096756935119629,
                    6.184132099151611,
                    11.452349662780762,
                    -5.72910737991333,
                    3.959115505218506,
                    1.5467257499694824,
                    8.452300071716309,
                    0.36873143911361694,
                    -12.850428581237793,
                    -13.580078125,
                    0.6355595588684082,
                    1.404103398323059,
                    -5.474785804748535,
                    10.802443504333496,
                    -10.841066360473633,
                    -2.939713954925537,
                    8.969672203063965,
                    -8.823988914489746,
                    6.919205665588379,
                    -4.187793731689453,
                    -6.878098487854004,
                    1.4145140647888184,
                    -6.03837776184082,
                    -5.173755168914795,
                    1.874436378479004,
                    -3.3313965797424316,
                    -8.608373641967773,
                    -7.288537502288818,
                    -8.916926383972168,
                    -2.698899745941162,
                    -3.774818181991577,
                    -6.269156455993652,
                    -2.0167407989501953,
                    -3.161578416824341,
                    -6.431545734405518,
                    -5.4731340408325195,
                    -3.3037302494049072,
                    -2.5437586307525635,
                    -1.6248503923416138,
                    -0.7189213037490845,
                    -2.642780065536499,
                    -3.281221866607666,
                    -2.5401010513305664,
                    -1.715216040611267,
                    -1.0779201984405518,
                    -1.2880611419677734,
                    -3.5279722213745117,
                    -1.995274305343628,
                    -2.1110594272613525,
                    -1.1350878477096558,
                    -0.8101226091384888,
                    -1.9193438291549683,
                    -0.862300455570221,
                    -0.5606379508972168,
                    -0.8528739809989929,
                    -1.012698769569397,
                    -1.1280102729797363,
                    -1.2506173849105835,
                    -0.8476042747497559,
                    -1.340883493423462,
                    -1.1565240621566772,
                    -0.6177304983139038,
                    -1.2622629404067993,
                    -0.9893034100532532,
                    -1.0140531063079834,
                    -0.6164161562919617,
                    -0.5125218033790588,
                    -0.9302711486816406,
                    -0.5672804713249207,
                    -0.6165256500244141,
                    -1.2251836061477661,
                    -1.316996455192566,
                    -0.7002076506614685,
                    -0.9992170333862305,
                    -0.168463796377182,
                    -0.2533290982246399,
                    -0.9345988035202026,
                    -0.5355715751647949,
                    -0.5267598032951355,
                    -0.146720290184021,
                    -0.12516987323760986,
                    0.23216773569583893,
                    -0.416118323802948,
                    -0.13488584756851196,
                    -0.5430088639259338,
                    -0.15375886857509613,
                    -0.323122501373291,
                    -0.30898696184158325,
                    -0.45859575271606445,
                    -0.26809945702552795,
                    -0.29614129662513733,
                    -0.5767761468887329,
                    -0.2490372210741043,
                    -0.27005964517593384,
                    -0.10266585648059845,
                    -0.22309085726737976,
                    -0.2814238965511322,
                    -0.29076480865478516,
                    -0.3299933671951294,
                    -0.14423629641532898,
                    -0.26034417748451233,
                    -0.3176586627960205,
                    -0.2422814518213272,
                    -0.5695973038673401,
                    -0.4018450677394867,
                    -0.18424507975578308,
                    -0.41203227639198303,
                    -0.44928184151649475,
                    -0.4146798849105835,
                    -0.04210039973258972,
                    -0.04335377737879753,
                    -0.52109295129776,
                    -0.3473258912563324,
                    -0.3672834038734436,
                    0.026137039065361023,
                    -0.38136085867881775,
                    -0.5122747421264648,
                    -0.36650896072387695,
                    -0.429820716381073,
                    -0.4545840919017792,
                    -0.059294044971466064,
                    -0.2246476411819458,
                    -0.3004652261734009,
                    -0.17867906391620636,
                    -0.20565971732139587,
                    -0.09337080270051956,
                    -0.3707842230796814,
                    -0.33260706067085266,
                    -0.4037567377090454,
                    -0.2186918705701828,
                    -0.141854390501976,
                    -0.03696509450674057,
                    -0.041212305426597595,
                    -0.09291478991508484,
                    -0.3248155415058136,
                    -0.03883889690041542,
                    -0.12353823333978653,
                    -0.10218515247106552,
                    -0.1498619019985199,
                    -0.3066777288913727,
                    -0.3824169635772705,
                    -0.40757331252098083,
                    0.030626345425844193,
                    -0.07547716796398163,
                    -0.25871360301971436,
                    -0.028256744146347046,
                    -0.14186547696590424,
                    -0.13534094393253326,
                    0.034841012209653854,
                    -0.06885143369436264,
                    -0.038873352110385895,
                    -0.2104007601737976,
                    0.0751103088259697,
                    0.10100392252206802,
                    -0.15845106542110443,
                    -0.0399630144238472,
                    0.08156165480613708,
                    -0.23788036406040192,
                    0.11041060835123062,
                    0.11312898248434067,
                    -0.03569655120372772,
                    -0.0461089201271534,
                    0.08850030601024628,
                    0.11957894265651703,
                    0.15215057134628296,
                    0.11927580833435059,
                    0.19278891384601593,
                    0.02543621137738228,
                    0.1573149859905243,
                    -0.10037984699010849,
                    0.14719422161579132,
                    0.18349990248680115,
                    -0.17014077305793762,
                    0.2142561674118042,
                    -0.17670777440071106,
                    0.13029338419437408,
                    0.2796728312969208,
                    0.003312584012746811,
                    0.1748480200767517,
                    -0.12807220220565796,
                    -0.2102818340063095,
                    0.027659516781568527,
                    0.069294273853302,
                    0.11601473391056061,
                    -0.21307161450386047,
                    0.026189902797341347,
                    0.033799078315496445,
                    -0.12649907171726227,
                    -0.11028571426868439,
                    0.012294691056013107,
                    -0.2100428193807602,
                    0.013677816838026047,
                    -0.25222086906433105,
                    -0.15461184084415436,
                    -0.05282510071992874,
                    -0.09016751497983932,
                    -0.09529569000005722,
                    0.16634346544742584,
                    -0.024353427812457085,
                    0.15361422300338745,
                    -0.0223957858979702,
                    0.12797918915748596,
                    -0.15524378418922424,
                    -0.13084419071674347,
                    -0.04806029051542282,
                    -0.0383240170776844,
                    0.012051844969391823,
                    0.12635928392410278,
                    0.06580507010221481,
                    0.019390879198908806,
                    -0.19234375655651093,
                    -0.01713445596396923,
                    0.095958411693573,
                    -0.018210547044873238,
                    0.048803456127643585,
                    -0.08592190593481064,
                    0.1798243671655655,
                    0.17526161670684814,
                    0.13128338754177094,
                    -0.0722508579492569,
                    0.014278152957558632,
                    -0.10785958170890808,
                    -0.2075929492712021,
                    -0.031248359009623528,
                    0.16323238611221313,
                    -0.20225271582603455,
                    0.054248884320259094,
                    -0.19120799005031586,
                    0.0075110457837581635,
                    0.07190901041030884,
                    0.01758725941181183,
                    -0.1753767728805542,
                    -0.10939571261405945,
                    0.017099561169743538,
                    -0.04495873674750328,
                    -0.06097587198019028,
                    -0.17596037685871124,
                    -0.05389786511659622,
                    -0.0995946004986763,
                    -0.02281014621257782,
                    0.14280767738819122,
                    -0.061027392745018005,
                    -0.17207245528697968,
                    -0.11758804321289062,
                    0.19957134127616882,
                    0.027754919603466988,
                    -0.0421517975628376,
                    0.11467542499303818,
                    0.12149818986654282,
                    -0.12337851524353027,
                    0.1918783187866211,
                    -0.01311691477894783,
                    0.16092067956924438,
                    -0.02105879783630371,
                    0.18788079917430878,
                    0.09680430591106415,
                    0.016601145267486572,
                    -0.1284315437078476,
                    -0.06509657949209213,
                    -0.030399303883314133,
                    -0.17401200532913208,
                    0.05537790060043335,
                    -0.04892968758940697,
                    -0.14317156374454498,
                    -0.20133359730243683,
                    -0.002032970543950796,
                    -0.11480095237493515,
                    0.09494505077600479,
                    0.12533363699913025,
                    -0.18829217553138733,
                    0.1694404035806656,
                    0.042977456003427505,
                    -0.20472562313079834,
                    -0.1245250329375267,
                    -0.03281217813491821,
                    -0.10957406461238861,
                    -0.02761106938123703,
                    0.016768723726272583,
                    0.0577331967651844,
                    -0.062090396881103516,
                    -0.14754678308963776,
                    -0.09214112162590027,
                    -0.03685194253921509,
                    -0.11770913004875183,
                    0.032893888652324677,
                    -0.14547927677631378,
                    0.16487477719783783,
                    -0.10469531267881393,
                    -0.11347683519124985,
                    0.15429362654685974,
                    0.15592733025550842,
                    -0.17523296177387238,
                    0.02956816554069519,
                    -0.0030480881687253714,
                    0.13458240032196045,
                    -0.1566643863916397,
                    -0.01929251104593277,
                    -0.17576062679290771,
                    -0.14414267241954803,
                    -0.00015959063603077084,
                    0.05096108466386795,
                    0.07589169591665268,
                    -0.013381109572947025,
                    0.05078352242708206,
                    -0.04372865706682205
                ],
                [
                    -1.567076563835144,
                    -9.413444519042969,
                    -22.245256423950195,
                    -3.29546856880188,
                    -14.027379035949707,
                    -3.212057590484619,
                    -1.193363070487976,
                    -2.168635606765747,
                    -9.611102104187012,
                    10.273880958557129,
                    -3.162764549255371,
                    -5.55576753616333,
                    4.8724541664123535,
                    4.071089267730713,
                    -11.64344310760498,
                    0.6145254373550415,
                    3.170278310775757,
                    -9.855772018432617,
                    -0.71968013048172,
                    -4.714601039886475,
                    -4.813570499420166,
                    -8.274517059326172,
                    -1.616040587425232,
                    0.34588342905044556,
                    -0.438856840133667,
                    -14.488121032714844,
                    -1.5370361804962158,
                    -4.509753704071045,
                    17.85472297668457,
                    1.415145754814148,
                    -2.416311264038086,
                    2.9212214946746826,
                    -2.3573410511016846,
                    6.351304054260254,
                    16.360496520996094,
                    5.322090148925781,
                    2.262030839920044,
                    -5.38632345199585,
                    10.446684837341309,
                    2.297734498977661,
                    -6.4742841720581055,
                    -8.040448188781738,
                    -1.0065617561340332,
                    -8.877161979675293,
                    -4.440487384796143,
                    3.9359803199768066,
                    -2.0378270149230957,
                    -5.762077808380127,
                    6.416861534118652,
                    -1.4408268928527832,
                    1.5922234058380127,
                    3.495037317276001,
                    -5.099231719970703,
                    2.567265748977661,
                    -8.83202075958252,
                    0.5909327268600464,
                    -0.821550726890564,
                    6.630631923675537,
                    1.0760953426361084,
                    9.36168384552002,
                    6.068942070007324,
                    -1.1143765449523926,
                    6.195725917816162,
                    -13.25365161895752,
                    -0.05082327127456665,
                    -8.726378440856934,
                    -3.5702121257781982,
                    -3.3673629760742188,
                    4.859594345092773,
                    14.790457725524902,
                    6.643535137176514,
                    2.8602712154388428,
                    0.5767832398414612,
                    -10.955073356628418,
                    -2.419888734817505,
                    -10.336210250854492,
                    8.608436584472656,
                    0.20016419887542725,
                    8.943490982055664,
                    11.270918846130371,
                    -6.2875075340271,
                    12.125904083251953,
                    -2.6936516761779785,
                    1.049635410308838,
                    -0.9803501963615417,
                    -0.6856791377067566,
                    -9.276577949523926,
                    -5.12144136428833,
                    -5.387259483337402,
                    -15.705297470092773,
                    -4.535960674285889,
                    1.7901923656463623,
                    4.7902116775512695,
                    -5.064549446105957,
                    -6.998537540435791,
                    6.341128826141357,
                    -0.037425603717565536,
                    5.063330173492432,
                    9.9621000289917,
                    -1.7028948068618774,
                    1.151604175567627,
                    15.45945930480957,
                    1.7655619382858276,
                    -0.33762598037719727,
                    -6.888864994049072,
                    -0.2377767711877823,
                    3.436455726623535,
                    5.048734664916992,
                    -5.794114589691162,
                    0.5230330228805542,
                    -7.21412467956543,
                    -5.551651477813721,
                    -1.7754371166229248,
                    3.620232105255127,
                    12.900607109069824,
                    0.3754715025424957,
                    1.8723341226577759,
                    -8.719833374023438,
                    -3.9897027015686035,
                    -8.744768142700195,
                    -15.018696784973145,
                    3.6793854236602783,
                    4.412511348724365,
                    3.9950952529907227,
                    -0.3222869336605072,
                    0.8622718453407288,
                    6.2151055335998535,
                    5.215041160583496,
                    5.675050735473633,
                    -4.376306533813477,
                    5.437110900878906,
                    4.220296382904053,
                    -5.562866687774658,
                    -3.8329317569732666,
                    1.6135270595550537,
                    -0.6985791325569153,
                    -1.1902282238006592,
                    4.670716285705566,
                    1.5518838167190552,
                    5.3975701332092285,
                    0.8043429255485535,
                    -6.965326309204102,
                    -1.3997713327407837,
                    -3.1211471557617188,
                    1.3527593612670898,
                    -11.039514541625977,
                    2.7398881912231445,
                    5.117612361907959,
                    1.0337704420089722,
                    -2.8815388679504395,
                    -1.7357784509658813,
                    1.6764709949493408,
                    8.211464881896973,
                    1.558150291442871,
                    3.624647855758667,
                    6.439390182495117,
                    -1.1275075674057007,
                    6.180493354797363,
                    8.045065879821777,
                    -3.8949673175811768,
                    -5.911701202392578,
                    -2.7655138969421387,
                    -3.9156408309936523,
                    1.2920228242874146,
                    3.177952527999878,
                    2.1425039768218994,
                    -10.115381240844727,
                    -4.871196269989014,
                    1.8806096315383911,
                    -5.798433780670166,
                    3.6132683753967285,
                    3.097490072250366,
                    1.8776381015777588,
                    -0.5352136492729187,
                    -5.5817365646362305,
                    -2.20190691947937,
                    8.024040222167969,
                    -1.0003300905227661,
                    -5.740652084350586,
                    -7.845710277557373,
                    -10.253002166748047,
                    -0.8557887077331543,
                    -1.995539903640747,
                    -1.371108055114746,
                    0.16911277174949646,
                    1.239284873008728,
                    5.41318941116333,
                    -0.24783064424991608,
                    2.1489903926849365,
                    6.970774173736572,
                    4.5017008781433105,
                    2.492339849472046,
                    8.78792953491211,
                    3.149590253829956,
                    -2.1559505462646484,
                    2.694362163543701,
                    6.774044990539551,
                    3.307006597518921,
                    -1.5480469465255737,
                    -3.4693164825439453,
                    -4.141502380371094,
                    2.816976308822632,
                    3.8801212310791016,
                    -2.8075671195983887,
                    -4.5636396408081055,
                    -2.191063165664673,
                    0.9012303948402405,
                    -2.5323901176452637,
                    -5.361024379730225,
                    -1.2516347169876099,
                    4.713588714599609,
                    3.0810883045196533,
                    4.412549018859863,
                    4.204572677612305,
                    3.232304334640503,
                    1.5127602815628052,
                    -0.3249974548816681,
                    2.622687578201294,
                    0.0826040729880333,
                    -0.4546104073524475,
                    -1.2741329669952393,
                    0.5768317580223083,
                    1.776096224784851,
                    -1.3209127187728882,
                    -0.9049902558326721,
                    0.4287947714328766,
                    -1.6056365966796875,
                    -1.8150901794433594,
                    -0.7740800976753235,
                    -0.6043161153793335,
                    -1.647932767868042,
                    -1.5776020288467407,
                    -0.21022938191890717,
                    -1.2159273624420166,
                    -2.0520434379577637,
                    -0.13417887687683105,
                    -1.0866262912750244,
                    -2.3285622596740723,
                    -0.47604936361312866,
                    -0.5856202840805054,
                    -1.1340279579162598,
                    -0.22442860901355743,
                    0.7948722839355469,
                    1.092844009399414,
                    -0.11027401685714722,
                    2.5321295261383057,
                    2.799612522125244,
                    2.886066436767578,
                    1.4677096605300903,
                    2.1454665660858154,
                    2.6151654720306396,
                    1.6981369256973267,
                    2.684799909591675,
                    1.4674206972122192,
                    0.4773235619068146,
                    0.11622920632362366,
                    0.558941662311554,
                    0.7803055047988892,
                    1.174551010131836,
                    0.023527372628450394,
                    0.5471764802932739,
                    0.8421638607978821,
                    0.967955470085144,
                    0.9319334030151367,
                    0.48063066601753235,
                    0.8952543139457703,
                    1.0225706100463867,
                    0.7269361019134521,
                    1.1805144548416138,
                    1.5298312902450562,
                    1.681516170501709,
                    1.524941086769104,
                    -0.35455629229545593,
                    -0.837497889995575,
                    -0.4400116205215454,
                    0.18661628663539886,
                    -0.061512354761362076,
                    -0.21739766001701355,
                    -0.4478099048137665,
                    -0.5544195771217346,
                    -0.4184061288833618,
                    -0.34747713804244995,
                    -0.45436882972717285,
                    -0.8889040946960449,
                    -0.7323029637336731,
                    -0.6078697443008423,
                    -0.3135487139225006,
                    -0.19809876382350922,
                    -0.688911497592926,
                    -0.25814154744148254,
                    -0.5532417893409729,
                    -0.5868362784385681,
                    -0.5480586886405945,
                    -0.47283992171287537,
                    -0.5106452703475952,
                    -0.5805639624595642,
                    -0.4652954339981079,
                    -0.32121896743774414,
                    -0.1520131230354309,
                    0.11590393632650375,
                    -0.012738133780658245,
                    0.00857521127909422,
                    0.2638218104839325,
                    -0.2488289624452591,
                    0.09497391432523727,
                    -0.03247147053480148,
                    0.06402625888586044,
                    0.09035125374794006,
                    -0.09459145367145538,
                    0.019076844677329063,
                    -0.169501394033432,
                    0.07722771167755127,
                    -0.06848061829805374,
                    0.15429659187793732,
                    -0.10302967578172684,
                    -0.04796195402741432,
                    -0.1673862189054489,
                    -0.057023435831069946,
                    -0.051843833178281784,
                    -0.05696208402514458,
                    0.1815928816795349,
                    0.020347608253359795,
                    0.11689068377017975,
                    -0.07203815132379532,
                    -0.023419542238116264,
                    -0.13513429462909698,
                    0.08600843697786331,
                    -0.05593056231737137,
                    0.07760998606681824,
                    -0.1592308133840561,
                    -0.18753115832805634,
                    -0.0318206362426281,
                    -0.18566258251667023,
                    -0.11252222955226898,
                    0.10946215689182281,
                    -0.15799745917320251,
                    0.19022077322006226,
                    -0.017114194110035896,
                    0.02679615095257759,
                    -0.06250453740358353,
                    0.17349272966384888,
                    0.19906342029571533,
                    -0.14697600901126862,
                    -0.15520456433296204,
                    0.0008505829027853906,
                    0.1894647628068924,
                    0.18393786251544952,
                    -0.03176969289779663,
                    0.10896005481481552,
                    -0.08344164490699768,
                    0.17510545253753662,
                    -0.10574705898761749,
                    -0.17287054657936096,
                    -0.030860399827361107,
                    -0.05293646454811096,
                    -0.0050602746196091175,
                    0.001796156633645296,
                    0.15033680200576782,
                    -0.16895931959152222
                ],
                [
                    8.151294708251953,
                    14.482492446899414,
                    4.306194305419922,
                    5.664595603942871,
                    -6.655300617218018,
                    6.700971603393555,
                    6.494717597961426,
                    9.59286117553711,
                    -5.445794105529785,
                    12.676517486572266,
                    19.54913330078125,
                    -1.7059804201126099,
                    16.13514518737793,
                    2.8580033779144287,
                    0.8114282488822937,
                    14.655685424804688,
                    -5.456584930419922,
                    -1.242809534072876,
                    7.7731404304504395,
                    -2.1639609336853027,
                    11.20857048034668,
                    2.10616135597229,
                    -11.597342491149902,
                    -5.099014759063721,
                    -1.9303816556930542,
                    -1.3702337741851807,
                    3.116894006729126,
                    6.772607326507568,
                    8.875835418701172,
                    -6.37525749206543,
                    -1.6240928173065186,
                    -19.7574405670166,
                    7.496102333068848,
                    5.509067535400391,
                    1.7137157917022705,
                    -22.188329696655273,
                    23.022174835205078,
                    12.832460403442383,
                    4.8938398361206055,
                    -14.61203670501709,
                    -2.3170506954193115,
                    -9.031851768493652,
                    -13.623847007751465,
                    -6.484224319458008,
                    -6.509858131408691,
                    -0.8860458135604858,
                    4.5412163734436035,
                    3.88270902633667,
                    -5.589076519012451,
                    -1.127048134803772,
                    1.7314884662628174,
                    6.9749274253845215,
                    -0.7306137681007385,
                    1.8782787322998047,
                    -5.206117630004883,
                    7.640820503234863,
                    -1.498339295387268,
                    -25.973947525024414,
                    2.3053572177886963,
                    -5.418595790863037,
                    -6.509702205657959,
                    2.3875010013580322,
                    4.8405961990356445,
                    3.698481321334839,
                    -5.012095928192139,
                    -4.304023265838623,
                    -14.088067054748535,
                    -2.1440811157226562,
                    4.368022918701172,
                    -4.064896106719971,
                    -2.539630651473999,
                    -16.29684066772461,
                    -15.75320053100586,
                    -7.762681484222412,
                    -5.538455009460449,
                    -3.3227944374084473,
                    -0.2496740221977234,
                    1.0759296417236328,
                    -2.9644899368286133,
                    3.29842472076416,
                    2.6884429454803467,
                    -6.861968994140625,
                    -6.2352070808410645,
                    -7.5699663162231445,
                    -6.085747241973877,
                    -3.8403408527374268,
                    -2.378206968307495,
                    0.3335624933242798,
                    -0.9480299949645996,
                    -2.4046123027801514,
                    -1.635102391242981,
                    0.2241216003894806,
                    0.324616938829422,
                    0.4692477285861969,
                    -1.0781667232513428,
                    -0.9352407455444336,
                    -0.521493136882782,
                    -0.6644560098648071,
                    -0.651397705078125,
                    -0.5549973845481873,
                    -1.3689184188842773,
                    -0.06403256207704544,
                    0.24593573808670044,
                    0.8127939701080322,
                    -0.16357313096523285,
                    -0.2579386532306671,
                    -0.29379624128341675,
                    -0.2926275134086609,
                    -0.25632891058921814,
                    -0.3690014183521271,
                    -0.6142823696136475,
                    -0.44562724232673645,
                    -0.38479313254356384,
                    -0.34268999099731445,
                    0.022852780297398567,
                    -0.8445311188697815,
                    -0.6410946846008301,
                    -0.27757880091667175,
                    0.726151704788208,
                    -0.11894615739583969,
                    -0.647452175617218,
                    -0.07277769595384598,
                    0.28689998388290405,
                    -0.14673297107219696,
                    0.020068438723683357,
                    -0.2778152525424957,
                    -0.2986588478088379,
                    -0.12116038054227829,
                    -0.3903732895851135,
                    0.11039651930332184,
                    0.14938732981681824,
                    0.0527765229344368,
                    0.19945847988128662,
                    -0.5043027400970459,
                    0.05043211206793785,
                    0.36775389313697815,
                    -0.12360578775405884,
                    -0.31146422028541565,
                    -0.12817801535129547,
                    0.2715100646018982,
                    0.30878183245658875,
                    -0.053493764251470566,
                    -0.31902486085891724,
                    -0.1542605608701706,
                    -0.15789328515529633,
                    -0.3249640166759491,
                    0.7578901052474976,
                    -0.046198904514312744,
                    0.4090421795845032,
                    -0.16109125316143036,
                    0.0410437285900116,
                    0.2612473964691162,
                    -0.10921160131692886,
                    0.7379348874092102,
                    0.3861345946788788,
                    0.49746236205101013,
                    0.23847436904907227,
                    -0.10847264528274536,
                    0.016997722908854485,
                    0.8581589460372925,
                    0.2667815387248993,
                    -0.06432532519102097,
                    -0.036044564098119736,
                    0.3247727155685425,
                    -0.02557641640305519,
                    0.00411537941545248,
                    0.19724422693252563,
                    -0.07726116478443146,
                    0.47125759720802307,
                    0.2764192819595337,
                    0.16962964832782745,
                    -0.1310078203678131,
                    0.38967758417129517,
                    0.32328787446022034,
                    0.06861959397792816,
                    0.2156577855348587,
                    0.11223633587360382,
                    -0.03065650351345539,
                    0.1717059463262558,
                    -0.12951818108558655,
                    0.002504778327420354,
                    0.10706326365470886,
                    -0.11509110778570175,
                    0.11629832535982132,
                    0.49372759461402893,
                    0.9846233129501343,
                    0.6776300668716431,
                    0.4056774377822876,
                    0.24572007358074188,
                    0.08878736197948456,
                    0.40532374382019043,
                    0.44446513056755066,
                    0.26735737919807434,
                    0.41310617327690125,
                    0.253773957490921,
                    0.33812206983566284,
                    0.21063482761383057,
                    -0.11141018569469452,
                    -0.0051832618191838264,
                    -0.008203939534723759,
                    0.03936386480927467,
                    -0.17580926418304443,
                    0.09502535313367844,
                    -0.3056013286113739,
                    0.11544663459062576,
                    -0.10622184723615646,
                    0.28315356373786926,
                    0.02913656271994114,
                    -0.07920181751251221,
                    -0.11833313852548599,
                    0.25965508818626404,
                    0.25796014070510864,
                    0.039071887731552124,
                    0.16389812529087067,
                    0.1450391709804535,
                    -0.10939179360866547,
                    -0.022257518023252487,
                    0.1425439417362213,
                    0.0376085601747036,
                    0.0800473690032959,
                    -0.06636590510606766,
                    -0.09181170910596848,
                    0.13500545918941498,
                    0.05859522521495819,
                    -0.05715351179242134,
                    0.23279523849487305,
                    0.011482813395559788,
                    -0.08012136816978455,
                    0.10887856781482697,
                    0.20214548707008362,
                    0.11031491309404373,
                    0.10712146013975143,
                    -0.017518585547804832,
                    -0.109054796397686,
                    -0.10956601798534393,
                    0.043585166335105896,
                    -0.1130489930510521,
                    -0.26967817544937134,
                    0.05576705187559128,
                    0.0632651150226593,
                    -0.20944273471832275,
                    -0.08267415314912796,
                    0.11314044892787933,
                    -0.24022269248962402,
                    0.09998418390750885,
                    0.1615580916404724,
                    -0.08290179073810577,
                    -0.07014526426792145,
                    0.24856364727020264,
                    -0.0629425197839737,
                    0.2581131160259247,
                    0.163186714053154,
                    0.0472097210586071,
                    -0.05476114898920059,
                    0.08602017164230347,
                    -0.036236174404621124,
                    -0.09023560583591461,
                    0.23807214200496674,
                    -0.1573421061038971,
                    0.1424783319234848,
                    0.013278479687869549,
                    0.17139200866222382,
                    0.033210866153240204,
                    -0.14391721785068512,
                    -0.13927094638347626,
                    0.22205694019794464,
                    -0.00044047346455045044,
                    0.18577729165554047,
                    0.19644692540168762,
                    0.1293150931596756,
                    -0.1237359270453453,
                    0.08109612762928009,
                    0.1387166678905487,
                    -0.005619948264211416,
                    0.019501907750964165,
                    -0.1726885437965393,
                    0.03744111955165863,
                    -0.026999546214938164,
                    0.19003252685070038,
                    -0.13560418784618378,
                    0.06982254236936569,
                    -0.1014934852719307,
                    0.13146819174289703,
                    0.1831744760274887,
                    0.25419217348098755,
                    0.020973650738596916,
                    0.06780453026294708,
                    0.10288754105567932,
                    0.07680421322584152,
                    0.042973145842552185,
                    -0.003680326510220766,
                    -0.024546461179852486,
                    -0.10068619251251221,
                    0.17189761996269226,
                    -0.033126138150691986,
                    0.16370315849781036,
                    -0.1512005776166916,
                    0.1796169877052307,
                    0.006757988594472408,
                    0.09231919050216675,
                    -0.09825154393911362,
                    0.14604751765727997,
                    0.09292318671941757,
                    -0.09519559144973755,
                    -0.03428591415286064,
                    -0.05966699495911598,
                    -0.19323882460594177,
                    -0.17487476766109467,
                    -0.1661100536584854,
                    0.19279810786247253,
                    0.18471547961235046,
                    0.16824135184288025,
                    -0.08954877406358719,
                    0.09632517397403717,
                    0.06996052712202072,
                    -0.03125828132033348,
                    -0.12414103001356125,
                    0.01486233901232481,
                    -0.07460610568523407,
                    -0.009769730269908905,
                    -0.023678598925471306,
                    -0.08011513948440552,
                    -0.1815319061279297,
                    -0.13256530463695526,
                    -0.13336794078350067,
                    0.10968873649835587,
                    0.08847824484109879,
                    -0.09230705350637436,
                    -0.013396044261753559,
                    0.11988892406225204,
                    0.0693729892373085,
                    0.12828902900218964,
                    -0.1898355931043625,
                    0.10100934654474258,
                    -0.0352398157119751,
                    0.08099135756492615,
                    -0.05953434109687805,
                    0.01762556843459606,
                    0.09204115718603134,
                    -0.021736042574048042,
                    -0.20201489329338074,
                    0.148019939661026,
                    0.1020437479019165,
                    0.04321826994419098,
                    0.1481439471244812,
                    0.021201517432928085,
                    -0.05947166308760643,
                    -0.06169087067246437,
                    -0.14446288347244263,
                    -0.06253768503665924,
                    0.15641739964485168,
                    0.03131219372153282,
                    0.13212479650974274,
                    0.09139839559793472,
                    0.14985619485378265,
                    0.004783397540450096,
                    0.09396249800920486,
                    -0.0025039087049663067,
                    0.14643685519695282
                ],
                [
                    0.003803850384429097,
                    -4.276155471801758,
                    -7.895447731018066,
                    5.991736888885498,
                    -2.2634060382843018,
                    -3.0684738159179688,
                    0.669962465763092,
                    -1.9710828065872192,
                    -1.38227117061615,
                    -5.873924732208252,
                    -6.087337493896484,
                    -5.536713123321533,
                    -2.3747124671936035,
                    5.2182135581970215,
                    7.358611583709717,
                    5.784660816192627,
                    -2.7374136447906494,
                    0.49641522765159607,
                    -8.281338691711426,
                    11.940239906311035,
                    3.187119960784912,
                    5.788221836090088,
                    -6.125831604003906,
                    -1.2271648645401,
                    3.2960987091064453,
                    -7.99921989440918,
                    -6.705835342407227,
                    1.6070972681045532,
                    -0.825843095779419,
                    -8.742009162902832,
                    -9.022762298583984,
                    -1.4970201253890991,
                    -4.6552510261535645,
                    -1.0488508939743042,
                    -16.066516876220703,
                    -11.582221031188965,
                    -9.430105209350586,
                    5.62772274017334,
                    1.7605763673782349,
                    -4.2405171394348145,
                    -6.041663646697998,
                    0.9803586006164551,
                    -6.53884220123291,
                    3.9477670192718506,
                    -10.161860466003418,
                    -0.9311820268630981,
                    0.35727807879447937,
                    1.1141842603683472,
                    3.587533473968506,
                    -11.552558898925781,
                    -1.2368052005767822,
                    -0.9847915172576904,
                    2.7199459075927734,
                    0.6591470837593079,
                    -3.4446046352386475,
                    0.5339136123657227,
                    -4.766897201538086,
                    1.6353305578231812,
                    2.5479063987731934,
                    10.789996147155762,
                    -3.612396001815796,
                    4.926730632781982,
                    -8.644538879394531,
                    0.3040882647037506,
                    0.9757036566734314,
                    -3.0955147743225098,
                    0.6174089312553406,
                    -4.15897798538208,
                    -0.8999417424201965,
                    -0.4545007348060608,
                    3.855506658554077,
                    3.2519607543945312,
                    -6.679974555969238,
                    3.788742780685425,
                    1.7387996912002563,
                    6.081360816955566,
                    -7.014871120452881,
                    -8.072553634643555,
                    -2.7219467163085938,
                    -1.6751607656478882,
                    -0.323054701089859,
                    0.48224908113479614,
                    -2.877639055252075,
                    -8.314629554748535,
                    -2.4354140758514404,
                    -2.837320327758789,
                    -3.0213024616241455,
                    0.3899030387401581,
                    -0.809374213218689,
                    -2.093961477279663,
                    0.918894350528717,
                    1.9432752132415771,
                    -1.4615939855575562,
                    -1.780371069908142,
                    -2.474114418029785,
                    -0.24255383014678955,
                    -3.3957953453063965,
                    -1.9753543138504028,
                    -1.0747137069702148,
                    -1.992331862449646,
                    -3.1232547760009766,
                    -1.4218212366104126,
                    -1.877341628074646,
                    1.5529661178588867,
                    0.2371995449066162,
                    -0.5679340362548828,
                    -0.14931699633598328,
                    -0.030150694772601128,
                    -0.7472058534622192,
                    0.16040003299713135,
                    -1.2338182926177979,
                    -0.1282205581665039,
                    -0.5226618051528931,
                    0.22763116657733917,
                    1.7341097593307495,
                    -0.21299272775650024,
                    0.7914515733718872,
                    0.7427494525909424,
                    0.2341262549161911,
                    -1.3516571521759033,
                    -0.7828097939491272,
                    -0.5054980516433716,
                    -0.38272610306739807,
                    -0.5300470590591431,
                    -0.19513526558876038,
                    -0.27456703782081604,
                    -0.8542386889457703,
                    -0.7381417751312256,
                    -0.7787949442863464,
                    -0.875099778175354,
                    -1.2786046266555786,
                    -1.0084106922149658,
                    0.5218830704689026,
                    -0.7251293659210205,
                    -0.5277303457260132,
                    -0.5075296759605408,
                    -0.43107911944389343,
                    -0.4456278383731842,
                    -0.8430947661399841,
                    1.188621997833252,
                    0.7081464529037476,
                    -0.3353968560695648,
                    -0.8076646327972412,
                    -0.9358800649642944,
                    -0.3235956132411957,
                    -0.24286557734012604,
                    -0.2525193691253662,
                    -0.10312852263450623,
                    0.4637622535228729,
                    -0.27845507860183716,
                    -0.22672459483146667,
                    0.21270616352558136,
                    -0.09130439907312393,
                    0.40422168374061584,
                    -0.2418794482946396,
                    -0.4916664958000183,
                    0.28414440155029297,
                    -0.0678757056593895,
                    -0.012270313687622547,
                    0.12130528688430786,
                    -0.3533917963504791,
                    0.07880234718322754,
                    -0.2128426432609558,
                    0.09272564947605133,
                    -0.0970577523112297,
                    -0.35031935572624207,
                    0.15864761173725128,
                    -0.26322096586227417,
                    0.37455180287361145,
                    0.16962476074695587,
                    0.013540132902562618,
                    -0.3066433370113373,
                    0.030445925891399384,
                    -0.6074746251106262,
                    0.09734205901622772,
                    -0.008175690658390522,
                    0.07952465862035751,
                    0.02185342088341713,
                    -0.003948969300836325,
                    -0.16966651380062103,
                    -0.10233651846647263,
                    0.05354243889451027,
                    0.21982355415821075,
                    0.2299240529537201,
                    0.5901762247085571,
                    0.5999543070793152,
                    0.4479465186595917,
                    0.38062283396720886,
                    0.017578480765223503,
                    0.17463670670986176,
                    0.11719948053359985,
                    -0.17145906388759613,
                    0.4660087525844574,
                    0.5057671070098877,
                    0.048639822751283646,
                    0.21390636265277863,
                    0.45013606548309326,
                    0.11458475887775421,
                    -0.0940275564789772,
                    -0.2437252700328827,
                    -0.4178132116794586,
                    -0.11689719557762146,
                    0.03766212612390518,
                    -0.0296077411621809,
                    0.428853303194046,
                    0.05791909247636795,
                    0.14559225738048553,
                    0.21444503962993622,
                    0.25805312395095825,
                    0.12630605697631836,
                    0.3919215500354767,
                    0.41823095083236694,
                    0.5464606285095215,
                    0.2265423983335495,
                    0.18690519034862518,
                    0.1330113708972931,
                    0.33767378330230713,
                    0.5231560468673706,
                    0.20785872638225555,
                    0.4292001724243164,
                    0.30477964878082275,
                    -0.21868249773979187,
                    0.12050051987171173,
                    -0.32125937938690186,
                    -0.10314715653657913,
                    0.14252690970897675,
                    0.0865379348397255,
                    -0.21984811127185822,
                    0.03834720700979233,
                    0.11143721640110016,
                    0.15711988508701324,
                    -0.1885945349931717,
                    -0.18148364126682281,
                    -0.011558185331523418,
                    -0.05824611335992813,
                    -0.23794016242027283,
                    -0.10277047008275986,
                    -0.14071962237358093,
                    -0.17987805604934692,
                    -0.11815103888511658,
                    -0.18140842020511627,
                    -0.1259247213602066,
                    -0.04857881739735603,
                    -0.29736801981925964,
                    -0.19306743144989014,
                    -0.023316049948334694,
                    0.08820611983537674,
                    0.13473431766033173,
                    0.11876121163368225,
                    0.06420077383518219,
                    -0.1090516597032547,
                    -0.14279337227344513,
                    0.14237195253372192,
                    0.018205048516392708,
                    -0.04660696163773537,
                    0.19890418648719788,
                    0.10022701323032379,
                    0.03671880066394806,
                    0.06212373077869415,
                    -0.05578005313873291,
                    0.19609728455543518,
                    0.1634918749332428,
                    0.12591342628002167,
                    0.05484063923358917,
                    -0.09073228389024734,
                    0.07077305018901825,
                    -0.053360093384981155,
                    0.0067054531536996365,
                    -0.02745136059820652,
                    0.14790397882461548,
                    0.03564835339784622,
                    -0.19525741040706635,
                    0.09119021147489548,
                    0.14647728204727173,
                    -0.08167321979999542,
                    0.12275407463312149,
